digraph Tree {
node [shape=box, style="filled, rounded", color="black", fontname="helvetica"] ;
edge [fontname="helvetica"] ;
0 [label="petal width (cm) <= 0.75\ngini = 0.66\nsamples = 95\nvalue = [49, 57, 44]\nclass = versicolor", fillcolor="#effdf5"] ;
1 [label="gini = 0.0\nsamples = 32\nvalue = [49, 0, 0]\nclass = setosa", fillcolor="#e58139"] ;
0 -> 1 [labeldistance=2.5, labelangle=45, headlabel="True"] ;
2 [label="petal width (cm) <= 1.75\ngini = 0.49\nsamples = 63\nvalue = [0, 57, 44]\nclass = versicolor", fillcolor="#d2f9e2"] ;
0 -> 2 [labeldistance=2.5, labelangle=-45, headlabel="False"] ;
3 [label="petal length (cm) <= 4.95\ngini = 0.15\nsamples = 36\nvalue = [0, 57, 5]\nclass = versicolor", fillcolor="#4ae78c"] ;
2 -> 3 ;
4 [label="gini = 0.0\nsamples = 30\nvalue = [0, 52, 0]\nclass = versicolor", fillcolor="#39e581"] ;
3 -> 4 ;
5 [label="sepal width (cm) <= 2.65\ngini = 0.5\nsamples = 6\nvalue = [0, 5, 5]\nclass = versicolor", fillcolor="#ffffff"] ;
3 -> 5 ;
6 [label="gini = 0.0\nsamples = 2\nvalue = [0, 0, 3]\nclass = virginica", fillcolor="#8139e5"] ;
5 -> 6 ;
7 [label="petal width (cm) <= 1.65\ngini = 0.41\nsamples = 4\nvalue = [0, 5, 2]\nclass = versicolor", fillcolor="#88efb3"] ;
5 -> 7 ;
8 [label="sepal width (cm) <= 2.75\ngini = 0.44\nsamples = 3\nvalue = [0, 1, 2]\nclass = virginica", fillcolor="#c09cf2"] ;
7 -> 8 ;
9 [label="gini = 0.0\nsamples = 1\nvalue = [0, 1, 0]\nclass = versicolor", fillcolor="#39e581"] ;
8 -> 9 ;
10 [label="gini = 0.0\nsamples = 2\nvalue = [0, 0, 2]\nclass = virginica", fillcolor="#8139e5"] ;
8 -> 10 ;
11 [label="gini = 0.0\nsamples = 1\nvalue = [0, 4, 0]\nclass = versicolor", fillcolor="#39e581"] ;
7 -> 11 ;
12 [label="gini = 0.0\nsamples = 27\nvalue = [0, 0, 39]\nclass = virginica", fillcolor="#8139e5"] ;
2 -> 12 ;
}